#include "nnom.h"

/* Weights, bias and Q format */
#define TENSOR_CONV2D_KERNEL_0 {-2, -98, 70, -31, -53, 95, -109, -6, -8, 44, -62, -17, 71, 28, -89, 89, -54, -26, -65, -14, 65, -19, 94, 5, -28, 39, 84, 50, 31, 26, 93, 51, -107, 45, 83, -24, -26, 60, -67, -74, 42, -33, 26, 115, -70, 19, -108, 90, 59, -49, 93, -57, -41, 66, -56, -18, -20, 13, 0, 111, 4, -90, 101, 29, 12, -105, 61, -109, -12, 0, -33, -54, -27, 105, 77, -88, 68, 35, -30, -10, 58, -70, -30, 11, 17, -68, 50, 7, -31, 75, -100, 38, 103, -109, -102, -27, -19, -74, 16, 61, -12, 63, 81, -46, 104, 82, -66, 51, 19, -21, -50, -8, 98, -26, -79, 25, -99, 34, -107, -20, 34, -58, -83, -1, -77, 11, -23, -15, -82, 107, -65, -53, 62, -80, -54, 30, -67, -20, -67, -107, -68, -111, -90, -16, -105, -65, 102, -46, 57, -9, 2, -62, -4, 37, -59, -68, 90, 5, 20, 48, -65, 67, 76, -91, 74, 5, -76, 91, 9, -45, -2, 83, 21, -73, 7, -77, -73, 80, -75, -100, -96, 73, -52, 14, 59, -102, -34, 19, -106, -15, 74, -37, 34, 44, -76, -95, 57, -77, -113, -84, 98, -4, -57, -3, -57, -72, 55, 106, -55, -2, 11, -48, -68, 114, -4, 17, -101, 75, 92, -88, 61, 54, 26, 65, 41, -76, 86, -34, -59, 9, 48, -71, 46, 68, -47, -38, -34, 20, -68, 13, -89, -48, 85, 50, 89, -105, 4, 86, 12, -6, 52, -47, -17, -17, 71, -111, -58, 78, -34, 20, -23, -6, 114, 25, -50, -25, -103, -102, 49, -55}

#define TENSOR_CONV2D_KERNEL_0_DEC_BITS {9}

#define TENSOR_CONV2D_BIAS_0 {66, 53, 82, 73, 84, 69, 77, 55, 71, 61, 62, 91, -60, 70, 59, 75, 46, 95, 48, 44, 70, 5, 72, 84, 37, 79, 63, 77, 29, 54}

#define TENSOR_CONV2D_BIAS_0_DEC_BITS {10}

#define CONV2D_BIAS_LSHIFT {4}

#define CONV2D_OUTPUT_RSHIFT {9}

#define TENSOR_CONV2D_1_KERNEL_0 {-26, -13, 13, 66, -50, 74, 94, -23, 38, 60, 28, 85, -31, -14, -30, -15, 10, 68, 23, -9, -38, 21, 66, 77, -2, -11, 8, 5, -22, -79, 40, -19, 80, 11, 54, 57, 30, 8, -7, -5, 7, 2, 20, 29, -87, 1, -10, 23, 5, -78, -35, 69, 29, 57, 16, 11, 52, 61, 4, 78, 52, -26, 56, -5, -25, 15, 83, -59, -31, 62, -38, -6, 26, -39, -79, -86, -42, -52, 13, -70, -42, 30, 58, -41, 41, 50, -12, -7, 56, -74, 65, -20, 11, 19, -19, 92, -12, 62, -32, 45, -31, 26, -81, 16, 31, -2, -16, -5, 61, 55, 7, -66, 57, -19, -27, -35, 22, 49, -33, -84, 29, -80, 3, 76, -14, -26, -27, -76, 77, 33, 61, 24, -84, 12, -40, 35, 66, -10, 65, -67, -57, 4, -10, 27, 27, 5, 14, 76, -8, 43, 57, -43, 39, -14, -34, 13, -7, -73, 60, 1, 68, 41, -24, -55, -80, -81, -5, 7, 70, 9, -33, -23, 28, 11, 37, -5, -2, -27, -43, 20, 72, 53, -4, 6, 53, -9, 58, -11, 54, 31, -26, 65, -36, 43, 74, 5, -66, 82, 21, 7, 30, -61, -10, 64, 1, -89, 70, -12, 63, 17, -1, 34, 73, -12, -46, -4, 51, 23, 31, 83, 27, 40, -34, -9, 11, 2, -44, 49, 9, -59, -76, -43, 77, -46, -16, 80, 70, -49, 31, -48, 54, -35, 16, 46, -16, 60, -26, -26, 43, -40, -27, 79, -68, -84, -62, -6, -7, -48, -10, -8, -28, -49, -30, -42, -34, 9, 18, 5, 45, -53, -28, 73, -2, 50, 65, 10, -77, 9, -25, 11, -96, 85, 52, -37, 91, 27, -87, -23, -89, 57, 20, 6, -86, 15, -12, -34, -97, -12, -59, 27, 44, 82, -80, 16, -81, 48, 53, 31, 17, 43, -18, 84, -78, 12, 59, 70, -37, 16, 18, 46, -9, -25, 2, 96, -23, -7, 20, -77, -67, -18, 35, 1, 29, -47, -28, -15, -11, -75, 3, 61, 44, -57, -29, -47, -62, -1, 14, 34, 56, -79, -42, -71, 61, -32, 48, -7, 30, 18, 82, 26, -75, 64, -16, 33, -27, -20, -13, 42, 79, -103, -95, 37, -5, 14, 21, 5, -32, 29, 0, 37, -23, 18, -91, -11, 63, -64, 12, 31, 16, 66, -14, -17, -42, 18, -27, -18, 70, 72, -56, 83, -33, 47, -4, 10, 82, 76, -41, 54, 38, -33, -13, -99, -19, 38, 18, -86, 84, -92, -70, -57, 53, 30, -22, 40, -30, 14, -2, 20, 7, 53, 53, 12, -38, -10, 10, -47, -5, 24, -11, 21, -4, 38, 38, -36, 36, 91, 53, -36, 19, 52, -91, 61, -45, 19, 36, -32, -12, 4, -48, -54, 0, -33, 73, -34, 67, -60, -23, -5, -44, 53, 10, -23, -90, 29, 42, 33, -55, -13, -59, 60, 3, 81, 2, -25, -1, 93, 7, 69, -65, 54, -35, -13, 24, 31, -28, 95, -47, 102, 37, -22, -1, -2, 98, 103, -63, -52, 28, -72, 8, -65, 41, -17, 20, -57, 30, -11, 13, 23, 53, 85, 19, -40, 10, 23, -76, 31, 67, 10, 19, -36, -65, -3, 39, -8, 50, -19, 5, 49, 81, 28, 27, 55, 29, 60, 86, -26, -44, -8, -37, -95, 4, -66, 0, 6, 4, -37, -72, 7, -42, 62, 53, 6, 27, 14, 36, -18, 36, 82, -17, -14, 38, 7, -61, -8, -12, 3, 102, 55, 29, 63, 44, 12, -28, 19, 38, 52, -29, 35, 44, -14, 17, 20, 23, 60, -49, -65, -6, -13, 25, -52, 36, -33, -17, -33, -3, 42, 45, 1, -10, -12, 59, -41, 36, 39, -59, -24, 59, 31, 61, -66, -67, -17, 37, -61, 90, 17, -18, 11, 37, 10, 19, 41, 40, 39, 85, -71, -60, -9, 68, 6, -24, -65, 26, -35, -3, -4, -20, -31, -70, 46, 76, 67, -78, 12, -30, -39, 11, 57, -47, 15, 56, -3, 26, 77, -62, 20, 11, 39, -67, 41, 10, 86, -95, 42, 55, 0, -28, 101, -24, 66, -13, -72, 30, 33, -75, -71, 39, 31, -36, -24, 56, -75, 73, -73, 29, -11, 41, -2, 30, -21, 21, 7, -67, -13, -31, 17, 6, -76, 18, -82, 15, 75, -16, -56, 86, 16, 58, -7, -32, 49, -42, -30, -27, 75, 35, -23, -85, 31, 34, -7, -5, 5, 61, -22, 10, 5, 27, 18, 13, 58, -11, 29, 25, -41, 16, 14, -26, 72, -63, 82, 6, -26, -53, 16, -94, 7, 41, 78, 3, 100, 42, 31, -25, 88, 3, 57, 23, -5, 66, 84, -61, -63, 89, 65, -14, -71, -7, -5, -5, -64, 18, -17, 86, -15, -18, 20, 21, -53, 25, -39, 49, 26, -52, 37, -5, 17, 80, -68, 1, -49, 35, 51, -15, -71, 27, 84, 23, 48, -15, 44, 71, 31, 7, -25, -72, 96, 68, 21, 21, 82, 14, 48, -92, 34, 51, 24, 42, -25, 63, 0, -33, 5, -24, -23, -57, -47, 51, -42, -19, -45, 64, -5, -1, 12, 10, 7, -18, 40, 88, 30, 11, -71, -19, 10, 46, -6, 1, -32, -15, -25, 42, 55, -10, -84, 49, 8, 82, 32, 74, 33, 93, 17, 16, 51, -3, 56, 24, 9, 40, 62, 30, 91, -22, -8, 40, 86, 45, 33, 91, -74, -86, -8, 71, -4, 22, 25, 61, 6, -4, -12, 43, -55, 33, -12, -96, 89, 55, 62, 57, 4, -24, 44, -35, 10, -13, 56, 27, 94, 84, -23, -47, -22, 65, -18, 75, 29, 52, -48, 48, -17, 72, -78, 6, 5, 70, 5, 54, 41, 38, -24, 12, -79, 18, -50, 34, 23, 93, -39, -68, 22, 82, 4, 77, -36, 23, 79, 77, 70, 58, 13, 67, 37, 73, 53, 7, -21, 70, 12, 87, 98, 50, -16, -19, 54, -6, 41, 69, 32, 57, -42, 28, 9, -9, 8, 0, 68, -18, 18, -5, 52, 68, -52, 27, -53, -63, 26, 56, 28, -4, 57, -12, 34, 1, -2, -39, 3, 90, 35, 2, -23, -43, 19, 58, 76, -22, -18, 73, -2, 35, -103, 94, 23, 90, 77, 12, 49, 14, -21, 41, 1, 8, 6, 40, -32, 2, 9, -17, -54, 45, -13, 26, 37, 10, 16, -12, 18, 78, 67, 8, 75, 21, -8, 27, 23, -6, -12, 77, -73, 74, 13, 61, 9, -68, -12, 47, -15, 54, 70, 86, -30, 22, 59, -22, 61, 30, 37, -7, 51, 68, 29, -79, 39, 80, -28, -26, 8, 0, -80, 91, -53, 29, -20, -23, 16, -55, -92, 35, 38, -57, -47, -68, -2, 8, 52, 33, 16, -38, 47, -70, 3, 33, 38, 83, 84, 27, 27, 43, -55, 98, -15, -40, 80, -69, -26, 40, 13, 42, 38, 18, -59, -43, -59, -10, 29, 39, -38, -50, 52, 5, 36, -29, 36, -43, 29, 28, 14, -37, 69, -45, -29, 30, -45, 14, 55, 75, -5, -69, 59, -35, 50, 45, -21, -57, 61, -53, 6, -58, 72, 13, 64, -61, 67, 67, 53, 15, 26, 53, -44, 34, -38, -51, 10, -75, -73, 5, 5, 26, 71, -46, -13, 31, -13, -12, 9, 36, 33, 18, 28, -1, 30, -34, 28, 98, 44, 43, 7, -1, -67, 99, -54, 33, 15, -31, 4, -70, 4, 35, 74, -16, 14, 48, -38, -37, 68, 35, 78, -62, 85, -37, -21, -48, 71, 5, 9, 80, 28, -9, 2, -53, 20, -52, -37, -16, -35, 20, -43, 18, -14, 31, 0, 81, 42, -90, -2, 22, -29, -40, 16, 22, 28, -51, 82, 40, 36, -4, 11, -58, 51, 61, -16, -22, 77, 35, 45, 71, 32, -26, 89, -47, 40, 19, -34, 6, -22, 54, -15, -17, 55, -65, 12, -3, -47, 50, 39, 4, 20, 84, 1, 50, 43, -24, 72, -81, -17, -46, 18, 17, -33, -27, 42, 5, -15, -31, 38, -19, 36, -65, -12, 39, 50, -43, 64, -45, 26, 29, -26, 8, 9, -42, 31, -62, -16, -35, 43, 35, -69, -8, 19, -71, 51, -3, -34, 13, 89, -44, -27, 30, 72, -13, -36, 9, -26, 6, -57, -75, 51, -7, 29, -18, 40, 46, 31, -64, 89, 91, 10, 51, -16, 14, 25, 15, 27, 88, 50, -46, 34, 14, -85, -28, -10, 49, 22, 87, -93, 18, 88, 27, -40, -13, 79, 32, -15, -35, 54, -11, 7, 49, -43, 35, -82, -10, 23, 62, 27, 40, 46, 88, -4, 68, 81, 50, -88, 13, -8, 60, 39, 35, -21, 83, -39, 6, -18, 17, -83, -24, -40, 7, -26, 30, -41, -15, 79, 4, 13, 44, 10, 1, 57, 68, 15, -11, 65, -59, -72, -88, 94, 64, -16, 1, 18, 60, 61, -59, 67, -9, 50, 97, 91, 89, 33, -42, -1, 52, 84, 17, 5, 88, -49, 7, -23, 99, -15, -13, -84, -26, 15, 30, -75, -18, 25, 48, 25, -20, 66, -30, -25, 52, -14, -29, -50, 17, -40, 38, -74, 70, 44, -4, -12, 41, 43, 35, -68, 92, -31, 35, -75, 40, -66, 48, -1, 12, -8, 46, -64, -59, -31, -13, -67, -6, -71, 74, -20, 29, -12, 60, 18, 25, 1, 56, 10, 71, 54, 49, 16, 19, 87, 80, 36, -54, 13, -25, 43, -57, 1, -14, 42, 7, 21, 24, -1, 40, -10, 34, 17, -38, -34, 39, -63, 46, -50, 83, -6, 44, -85, 23, 50, 20, -50, 57, 81, 33, 3, -49, -38, -70, 66, 36, -92, -20, -55, -4, -49, 80, -47, 37, 36, 34, 24, 81, 31, -17, 15, 85, 18, 83, -69, -57, -84, 37, 11, -47, 16, 74, -73, 35, -90, 57, 35, -42, -78, 44, -24, -58, 2, -13, 86, -12, 84, -37, 66, 68, -34, 18, -9, -68, -1, 47, -29, -7, -7, 84, 23, -8, -45, -6, -66, 10, -28, 37, -69, -37, -69, 63, -59, 32, 10, -35, -57, 33, -65, -64, 62, -25, 20, 43, -39, -69, 6, 49, -96, -88, -84, -7, 7, 60, -77, -86, -47, -22, -25, -15, 86, -54, -32, 57, 16, -70, -10, -23, 53, 23, -3, 32, 99, -76, 32, -8, 72, -57, 91, -32, 68, -84, 72, -26, 52, -21, -12, -3, 34, -32, -79, -22, 29, -97, -98, 85, 4, 8, -67, 91, -25, 97, -72, 48, 65, 61, -67, 57, 15, 40, -36, -41, 1, -39, -81, 38, -51, 79, -45, 9, -69, -7, -56, -8, 35, 39, -19, 3, -73, -23, 29, 77, 66, 36, -49, 2, 15, 12, -16, 14, -53, 9, -35, 15, 7, -24, 19, -77, 52, -8, 60, -35, 39, 23, 89, -70, 83, -26, 40, 21, 70, 5, -5, 10, 96, 67, 67, -58, 21, -68, 75, 60, -20, 86, 65, -58, 67, 29, 3, 29, -31, -29, 80, -11, 20, 73, -22, -53, -74, 55, -93, -3, 11, 34, -30, 4, -20, 15, 43, -39, 46, -56, -57, -69, -44, 23, -30, 28, 3, -83, 27, -1, -64, 29, 64, -40, -33, -5, -61, -70, 42, -14, 60, 103, -4, -16, -6, 54, -65, -85, 19, 86, 14, 36, -56, -78, 52, -93, 82, 36, 75, -90, -4, 68, 19, -42, 69, -15, 0, -54, 31, -92, 34, -24, 39, 29, 23, -82, 50, -57, 57, 25, -3, 94, 5, 36, 88, 60, -14, 45, 21, 6, 59, -72, -88, 20, 20, 15, 23, 38, 48, -9, 76, 49, -86, -16, 14, -16, 0, -1, 1, 37, 12, 54, -57, 19, -46, 9, 36, 55, 35, 25, -7, -46, 64, -61, -22, 53, 99, -43, 61, -41, 83, 6, -64, -69, 54, -74, -12, -13, -75, 30, 74, 9, 24, -67, -6, -21, 64, -1, 64, -31, 3, -44, 45, 20, 53, -66, 3, -28, -3, -94, 45, -65, 69, 17, 45, 14, 62, 19, -2, -24, 68, 85, 36, 38, 85, -28, 30, 53, 37, 67, 7, -51, -52, 49, -77, 21, -80, 39, 27, -5, 63, 80, -13, -48, 37, 3, 8, -35, -51, 80, 22, -12, 33, -7, 30, -66, -9, -18, 24, -72, 36, 12, -39, -60, 2, 46, 44, -22, 77, -75, 68, 77, -3, -61, 6, -29, -84, -68, -51, -26, 49, 53, 67, -76, 40, -63, 40, 17, -19, -84, 84, 12, 43, -42, 58, -17, 17, 45, 42, -6, 28, -4, 91, 56, 28, -78, 61, 71, 33, 44, 74, 34, 78, 50, 47, 17, 8, 25, -31, -14, 18, -65, -74, -1, 6, -9, -40, 32, 31, -5, 20, 11, -62, -36, 69, 22, -46, 16, 15, -41, -69, -45, -30, -24, 64, -68, -26, 58, 3, 31, -28, 54, 28, -29, -8, 6, 0, -84, -5, -26, 51, 20, 22, -11, 91, 39, -47, 33, 28, 15, 33, 70, -14, 14, -3, 21, 41, -2, 86, 2, 4, 46, 54, -21, 66, 27, 42, 26, 61, 21, 26, -13, 47, 53, 80, -69, -21, -30, 5, 19, 40, -10, -30, -27, 85, 59, -16, 13, -32, 85, 78, -65, -59, 70, 40, -42, -94, -31, -23, 56, -68, 41, -49, 8, -16, 29, 39, 34, -17, -11, -82, -59, 21, 7, -30, -66, -28, 56, 37, 67, -31, -34, 1, 13, 16, -22, 49, -18, -15, -4, 21, 34, -64, 8, -66, 35, -85, -58, 41, -78, 6, -16, -25, -23, 37, -69, -9, -14, 7, -11, -9, 12, 30, -76, 47, -13, 12, -7, 36, -20, 32, 13, 17, 8, 57, -61, -86, -90, 38, -41, 41, -25, 15, -25, 28, 25, 90, -2, 18, -29, 16, -50, -47, -48, 67, -87, -90, 83, -70, 42, -27, -31, -21, 8, -72, 91, 12, 5, -42, -40, -27, -19, -10, 24, 3, -46, -52, -8, -35, -4, -91, 68, 13, 73, 29, 55, 76, -55, -26, -8, -17, -6, -80, 3, -78, 5, -2, -31, 65, -85, -62, -67, -41, -19, 17, 24, -78, 38, 13, -14, -1, 1, 6, -62, 52, -72, 26, -93, 76, -19, 45, 25, 31, 24, 25, -73, -24, -85, 17, -45, -14, 52, -76, -60, -30, -70, 1, 9, 26, -74, 50, -15, 24, -73, -21, -92, -56, -16, 13, 51, -28, 2, -53, 28, -12, 67, -30, 64, 36, -73, -65, -66, 9, 5, -33, -21, -57, 15, -57, -34, 13, 0, 44, 62, 15, -10, 29, -47, -69, 93, 92, 80, -79, 40, -67, 49, -72, -56, 37, -52, 7, 11, -93, -43, 65, 26, -41, -27, -28, -12, -22, 49, 25, -39, -13, -9, 55, -32, 7, -31, -21, 10, -12, -8, 52, -12, -93, -1, 82, -79, 19, 29, -77, -21, 3, 7, 80, 10, 2, -60, 40, -86, 8, -29, 33, -49, -42, -58, 8, -79, -52, 2, 24, 26, 56, -25, 28, 28, -79, 24, 66, 58, 29, -78, 37, 5, 24, 15, 27, -49, 5, -55, -78, 4, -33, -89, -69, 94, 20, -21, 12, -93, 42, 90, -11, -18, 89, 18, 76, -47, -24, 32, -23, 0, 54, 36, 44, -20, 25, -6, 21, -26, 15, -25, -3, -5, -61, 72, 17, 74, -32, 62, 29, 63, -81, -15, 25, -20, 4, 66, 25, -58, -56, 65, 12, 18, -31, 79, 48, 77, -73, -22, 87, -40, -18, -25, -12, -12, 86, -38, 15, -39, 45, -2, -19, -97, -34, 31, -41, -26, 23, 8, 14, -6, 25, -35, 77, 56, 38, 8, -1, -82, -84, 23, -63, 20, 31, 17, 13, 61, -60, -37, 48, 74, 1, 64, -9, 94, 79, -30, 33, 59, 61, 60, 89, 45, -28, -46, -84, -20, 42, -15, 51, 65, -54, 84, 10, 55, -51, 22, -21, 52, -55, -27, -74, 19, -46, 52, -83, 42, -11, -23, -51, 68, -48, -13, -56, -12, -5, -30, -95, 54, 90, 34, 63, 72, 2, -43, 3, -21, 63, 20, 41, 0, 1, -49, 25, 29, 5, 36, 77, 7, -31, -39, 82, -20, -39, -62, 38, 35, 63, -79, -37, 14, 15, -19, 32, 76, -70, 19, -72, -37, 78, 55, -14, 29, -8, -17, 72, 17, 35, 3, 38, 80, -3, 51, 36, -72, 6, 45, -2, 72, 2, 68, -88, 85, -40, -2, 7, 59, 24, 20, -16, 64, -50, 14, 31, -18, -69, 42, 4, 3, -63, 83, -43, -91, -2, 54, 51, 20, -70, 49, 76, -23, -22, -24, 80, 65, 78, 11, 22, 19, 6, 81, 73, -46, 45, 58, 13, 3, 52, 57, -23, -40, 60, 3, 93, -15, -10, 94, -23, -53, -32, -8, 34, 84, 14, 29, 33, 1, 5, 36, 0, 16, 80, -14, -15, 55, -99, 101, 58, 13, 96, -16, -34, -67, 60, 14, 55, 25, -16, 38, 39, 11, 14, 8, 76, 39, 22, 42, -36, -91, 78, -37, 94, 33, 3, -4, -16, 35, 54, 37, 97, 78, 17, 76, 18, 53, -68, -20, 7, -38, -31, 38, 18, 93, 24, 25, 38, 29, 44, -89, 53, 11, 39, 68, 31, 79, -26, -13, 34, 17, 16, -6, 56, 39, 77, -36, -25, 79, 79, 40, 41, 85, -71, -15, -81, -19, 25, 30, 5, 13, -38, 24, -26, -17, 24, -5, -21, 4, -15, 43, 84, -3, 12, -74, 92, 66, 88, 26, -52, 42, 43, 43, 33, 57, 73, 19, -27, -50, 9, 4, 65, -57, 94, -40, 80, 31, -59, 13, 23, -2, 82, 23, -38, 56, -4, 40, -37, 79, -52, -21, 88, 41, 14, -14, -9, 89, 76, 23, -15, -25, 30, 79, 41, 33, 63, 8, -32, 4, -26, 69, 87, -38, 48, 19, -13, 5, -74, 48, 69, -10, -76, 80, -31, 16, -67, -17, 12, 31, -11, 72, -67, 5, -12, 20, -64, 75, -26, 49, 48, 51, 83, 67, -68, 5, -17, 72, 66, 58, 11, -14, 56, 30, 64, 82, -20, 95, -15, -15, -29, -42, 3, 56, -24, -58, 15, 64, -48, -70, 97, 47, 29, -1, 76, 12, 67, -18, -6, 65, 36, -20, 60, 60, -29, 18, 2, 6, 16, 21, 61, 15, 25, 10, 28, -97, -89, 3, -81, 64, 59, 79, 63, -62, -20, -19, 4, 60, 83, -48, 17, -65, -55, -35, 36, -36, 65, 87, -18, -84, -23, 1, 78, -2, 63, 36, -11, -17, 53, -75, 64, -18, 88, 56, -27, 44, -22, -79, -58, 18, 73, -25, -11, 14, -31, -29, -55, -5, -90, 100, -73, 42, 84, 93, -13, 82, 96, 14, 11, 3, -40, 17, 21, 85, -19, 23, -69, 35, -54, -25, -44, 53, -27, 60, -39, 54, 6, 22, 64, -92, 21, 55, -60, -65, 64, -57, -30, 36, -19, -2, -21, 72, -30, 11, -11, -13, 12, 7, -5, -82, 77, -92, -72, 5, 44, 6, 85, 21, 7, -49, -70, -4, -4, 67, 22, -47, 46, 25, -42, -21, 13, 56, -26, 79, 78, 77, 6, -9, -29, 91, 47, -67, -81, 86, 1, 26, -34, 48, -28, -19, -61, -1, 14, 45, 8, 44, 60, -18, 48, -28, -63, -7, 12, 3, -30, -7, -43, -32, 19, 45, -72, -14, 26, -7, -47, 70, 10, -8, -4, 12, -1, 11, -36, -37, 32, 11, -33, -43, -55, 26, 17, 88, 73, 6, -26, -10, 82, 20, -7, -47, 78, -90, -77, 13, 9, -6, 82, 31, 61, -62, -14, -87, 32, 29, 19, -18, 43, 55, -8, -60, -26, 72, 24, 9, 77, -21, 27, -9, -79, 59, 23, -34, -15, 52, -31, -14, -90, 83, -14, 29, -26, -17, -16, 2, 9, 27, 61, 14, -48, -80, -4, -5, 0, -16, -90, -1, -42, -45, -10, 70, -3, 22, 100, 8, -25, 49, 30, -9, 49, -55, -2, 6, 17, 28, 14, -3, 4, 73, -58, -53, -4, 22, 87, 35, -14, 79, 7, -15, -40, -20, 72, -38, -15, 85, -90, -12, -32, -13, 2, 74, -57, -51, 51, 40, -69, 48, -2, 99, -75, -84, 67, 11, 16, -1, -9, -15, -36, -64, 16, 33, -91, -36, 53, 73, -55, 55, -71, -81, -19, 13, -45, 37, -40, -73, 27, 72, -6, -58, 17, 63, 44, 37, -49, 0, -28, 29, 28, 39, 27, 30, 16, -28, -20, -70, 32, -62, 28, 70, -7, -79, -23, 17, -40, 7, 79, -43, 45, 98, -49, -8, 86, 5, -2, 39, 27, -14, 37, 53, -52, 44, -25, -25, -58, 9, -69, 51, -63, 13, -65, -12, -31, -5, -15, -17, 10, 79, 54, 41, 22, -10, 39, -58, 33, 62, 8, -6, -18, -18, 2, 28, -63, 28, 7, 90, -50, 51, -28, -49, -27, -14, 65, 91, -89, -12, 74, -29, -18, -48, 9, 5, -16, 30, 33, 30, -40, -70, 57, 83, 80, -78, -88, 89, 26, -38, -10, 16, -17, 58, -22, -6, -30, -3, 1, -33, 33, -40, -50, 21, -12, -41, 56, 94, 19, 71, -16, -26, 47, -46, -6, 66, 67, -80, 33, 85, -21, 29, -73, 57, -23, 69, -60, -30, 11, 97, 32, 58, 9, 56, -1, -71, 5, -83, 8, 41, -49, 11, -48, 4, -74, 22, -22, 26, -22, 15, -76, 92, -40, -91, -68, -33, 84, 62, -49, 27, 3, 47, -70, 22, -74, 72, -36, -46, -48, -41, -71, -19, 24, -14, 6, -24, 1, 74, 94, -44, 2, 18, -13, 98, -76, 14, -96, -39, 18, 101, 3, -3, 58, 33, 30, -2, -73, -58, -20, 85, 2, 13, -46, -2, -3, 72, -69, 70, -6, 76, 19, -1, -11, 81, -48, 22, 7, 23, 19, 9, 14, 56, 49, -18, -23, 60, 67, 37, 12, 69, -42, 48, 64, 47, 38, 41, 27, 54, 6, 29, 28, 35, 106, -14, -17, 20, -40, 47, 54, 65, -74, 55, 27, 31, 86, -52, -43, 14, -14, 3, -16, 35, 9, 21, 7, 55, -33, -3, 76, 56, 37, -16, -1, 22, 12, -11, -69, -45, 100, 75, 12, -16, -7, 86, 0, -64, -49, -10, -25, 98, -51, -12, 18, -37, 29, 33, -6, 67, 27, -9, 0, -1, 44, 11, 3, -10, -29, 3, 59, -35, 73, 43, 41, -33, 32, -7, 32, 23, 53, -31, -55, 31, 76, 56, 40, -14, -85, -15, -6, -47, 93, 77, 92, -1, 23, 39, -49, -45, 1, 97, -59, 48, 88, 44, 7, 7, 34, 82, -24, 85, 72, 66, -63, -45, -75, -8, 13, 77, 18, -3, 53, 41, 9, 45, -91, 58, -94, -73, 43, 59, -81, 14, 47, 78, 6, -87, -5, 24, 52, 43, -54, 62, -55, -7, -44, 93, -45, 74, 75, 79, -65, 60, 56, 37, 50, -35, 78, 8, -21, 44, -5, 55, -69, 58, 25, 91, -1, -26, -13, -20, -32, -11, 26, 91, 3, -51, -87, 64, -20, 9, 30, 34, 82, 6, -3, 28, 24, -17, 77, 94, 77, 72, -2, 6, 48, -49, 63, -22, 39, 60, -21, 64, -21, -46, -87, 38, 40, 1, 55, -12, -23, -12, -25, 48, 39, 2, 8, -35, 37, 6, -3, -87, 72, 32, -4, -8, 69, 10, 25, -11, 18, 85, 73, -16, -49, 89, -29, -40, -13, 49, -30, 53, 13, 63, -32, -25, -87, -29, 55, -16, 9, -13, 0, 41, 7, -5, 71, -56, 94, 7, 20, -13, -42, 50, -21, -19, 29, 65, -26, 15, -77, 46, 78, 63, -27, 81, 13, 30, 41, 23, -64, 53, 38, 23, 51, -36, 12, 12, 4, 65, 3, 21, 4, 32, 25, -5, -72, 57, 56, 41, 13, 63, 35, 35, -18, 20, -74, -59, 27, -18, -19, -5, 86, 28, -26, 19, 21, -23, -32, 59, 43, 92, 3, -19, -62, 72, 69, 20, -61, -25, -31, -22, -88, -3, 29, -8, 23, 3, 50, -5, -58, -14, 42, 66, -8, -2, 21, -46, -29, 85, -70, 57, -79, -41, 12, 77, 20, 0, -12, -23, -13, 3, 82, 9, 20, 69, 10, 15, 81, 6, -81, 68, 92, 55, -1, 36, -68, 19, 45, 41, 24, -43, -61, 12, 8, 76, -30, 76, 32, -51, -21, 17, -12, 9, 82, 33, -70, -23, 87, 41, -36, 18, 56, 8, 94, -58, 13, 26, 44, 30, 42, 39, 42, -22, -52, 9, 62, 3, -66, 53, -38, 12, -80, 82, -19, 57, -31, 71, 50, -5, 1, -22, 12, -10, 92, -25, 73, -40, 73, 56, -37, 25, -50, 55, -38, 28, -11, 37, 50, 37, -24, 33, 21, -26, -59, 71, 79, 90, 71, 63, -67, 83, -27, -18, 8, 4, -88, -1, -78, -16, -57, 28, -28, 51, 16, -7, -14, -10, 70, -29, 63, 35, -12}

#define TENSOR_CONV2D_1_KERNEL_0_DEC_BITS {9}

#define TENSOR_CONV2D_1_BIAS_0 {57, 52, 63, -8, 68, 65, 67, 43, 72, 51, 41, 35, 60, -10, 32}

#define TENSOR_CONV2D_1_BIAS_0_DEC_BITS {10}

#define CONV2D_1_BIAS_LSHIFT {4}

#define CONV2D_1_OUTPUT_RSHIFT {11}

#define TENSOR_DENSE_KERNEL_0 {-23, 11, 14, 10, -27, -9, -7, -22, -10, 18, -39, 1, -9, 28, 23, 18, 47, -15, 24, -27, 9, 27, -22, -49, -5, -17, 0, 21, -44, -24, -39, -3, -15, -48, -28, -8, -19, -15, 11, 28, -27, 29, 14, -8, 2, 7, 1, -7, 35, -27, -6, 26, -40, -9, -24, -37, -58, 52, -35, 36, -10, -48, -31, 19, -21, -27, -15, 9, -5, 21, 18, -29, -22, 30, -27, 29, -15, -47, 31, 15, 18, 29, 25, 18, 20, 34, -5, -23, 63, 17, 31, 43, 20, -9, 36, 25, -22, -2, -50, 26, 7, 12, -8, 9, 32, 21, -35, 48, -45, -27, 0, 27, 43, -48, 16, -11, -1, -43, -32, -24, 10, 10, -5, -57, 42, -16, -48, -34, 55, 0, 46, -34, 15, -9, 24, -8, -50, 12, 9, 10, 49, 10, -21, -43, 3, 28, 13, -9, 25, 21, 14, -24, -4, -4, -21, 13, -3, -33, 20, -8, -30, 33, 36, -27, -17, -5, -26, 11, 26, -6, -26, 37, 8, -15, 4, -7, 21, -14, 10, 41, 6, -16, 14, -32, -2, -19, -19, 46, -16, 41, -15, 35, -2, 39, -18, 20, 22, -21, -35, 10, 24, -55, 19, -2, -40, 23, -45, -27, -3, 6, -4, 22, -7, -39, -13, -36, 30, -7, 10, -2, -28, 9, 38, -44, -25, 39, -44, 25, -4, -23, 42, 16, 32, -46, -48, 20, -53, -6, 48, -21, -25, 51, 28, -26, -24, 26, 3, -35, 3, -35, 32, -3, 17, -41, -12, -24, 25, -7, 24, -2, -8, 10, -46, 16, 18, 42, 51, -32, -1, 25, -47, 6, 13, 12, 49, 17, 8, 5, -39, 7, -46, 9, 6, -9, 38, 22, 42, 16, -53, 27, -14, 47, 55, -14, 15, -16, 41, 16, -28, -24, 11, -26, 49, 29, 34, -27, -46, -25, 21, -32, 29, 24, 49, -55, -6, 27, -29, -56, -26, 29, 27, 1, 26, 0, 16, 28, -54, -54, -2, 55, -57, -8, -5, 45, 10, -30, 1, -45, 26, -47, -53, -31, -12, -52, -16, -2, -14, 5, -15, 34, -6, -46, 19, 7, 45, -4, 43, -17, 9, -51, 19, -47, -9, -25, 0, 31, 6, -37, 40, -12, -50, -3, -16, -37, -5, 4, 9, -23, 34, 41, -56, -15, -46, 35, 27, 8, -38, -19, -19, 21, -11, -18, -17, -18, -11, 1, 29, -44, -18, 54, -46, -34, -48, 27, -24, -39, -23, 42, 8, 23, -15, -4, 15, -24, -23, -27, -27, 30, 9, 7, -13, -32, -26, -2, -6, 0, 2, -24, 8, -45, -31, 2, 1, -15, 32, -27, 43, -3, -35, -37, 48, -41, 8, -19, -36, -51, 26, 36, -50, 15, -38, -28, 43, -30, -22, -56, 10, 20, -55, -29, -40, -29, -4, 47, -38, -40, 17, 26, 4, -31, 10, 48, 22, -40, -6, -6, -9, -6, -37, -48, 0, -37, -48, -41, -12, -10, -3, 48, 17, -2, 21, -25, 3, 19, 1, -35, 11, -13, 38, -19, 13, -14, -45, 23, -60, 14, -46, 24, 17, 7, 44, -7, 52, 33, -9, -52, -28, -34, 21, -53, -28, -45, -39, -27, -4, -2, 46, 32, -64, 16, -13, -39, -21, -18, -4, -30, 37, -39, 10, -48, 14, 17, 50, -33, 52, -2, 30, -4, 53, -3, 10, 1, 34, 0, -2, 38, -2, -49, -33, 20, 8, -14, -40, 15, -26, -27, 28, 45, -57, -21, -17, 29, 2, -31, -22, -8, 29, -45, 4, -14, 4, -56, 43, -12, -23, -27, 38, -25, 27, -4, 16, -1, -11, -29, 10, -4, 0, -49, -22, -6, 8, -13, 0, -16, 6, -40, -29, 44, 9, -13, 16, 17, -24, -19, -31, -39, -11, -23, 41, 4, 28, 4, -17, -46, -12, -15, 32, -14, -30, 23, -26, -35, -8, -12, -24, -16, 13, 43, 9, 4, 6, -15, 5, -37, -20, 37, 24, -18, 2, -9, 30, -22, -21, -30, 0, -41, 16, -22, 26, -23, 30, 14, -27, 32, 8, -12, -10, 33, 20, -24, 20, 30, -38, -13, -11, -50, 0, 10, 38, -31, 17, -20, 26, -6, 14, -14, 56, -54, -10, -11, -50, -1, -7, 31, -17, -4, 48, 10, -34, 18, 33, -12, -15, -21, -12, 20, -14, -49, -7, 9, 8, -51, -22, 10, -23, 15, 14, -24, -16, -24, -8, 9, 13, -45, 21, 34, 17, -19, -15, 14, 9, 15, 47, -2, 37, 56, 24, 24, -41, -16, -48, 11, -34, 49, -8, 11, -34, -11, -1, 8, 12, 36, 9, 12, -5, -49, -21, 28, 21, 2, 1, -48, -48, 7, 35, -55, 29, -42, -10, 21, 6, -41, -13, -18, 4, 12, -13, 6, 50, -11, -15, 44, -9, 16, -23, -17, -30, -17, -52, 26, 9, -61, -5, 5, 18, -25, -6, 39, 12, -12, -40, -9, -25, -32, 34, -59, -2, -40, 36, 25, 52, 46, -40, -12, 2, 9, -44, 5, -38, 9, -19, -19, 29, 7, 17, -63, -45, -19, -24, -47, 15, 16, -23, 9, -33, -30, 22, -26, -37, 1, -37, -25, 28, 41, 17, -3, -32, -2, -17, -17, -7, 20, -45, 18, -13, 6, -57, 11, -18, -48, 43, 50, 26, -17, -1, -17, -4, -28, 9, -27, -3, -36, 23, -10, -42, -1, -4, -36, -42, -47, 18, -40, -21, -33, -25, 29, -38, -33, 10, 49, -29, -24, -26, 4, -1, 12, 10, 8, 14, 16, -6, -6, 41, -50, 13, -24, -15, 4, 36, -29, 20, -25, 18, -20, -46, -28, -56, 56, -30, 19, 31, 13, -46, -4, 12, -53, -11, 43, 30, -12, 8, 4, -5, -15, 52, -22, -8, -17, -41, 9, 39, -52, 21, -50, -1, 21, -31, -32, -21, -31, -41, -51, 18, 16, 4, 8, -14, -25, 14, 0, -6, 13, 15, -1, 23, -29, 27, -31, 19, -13, -32, -50, 14, 48, -15, 14, -32, 1, 36, -35, 31, -29, -22, -36, -59, -47, 33, -21, -31, 11, -44, 50, 40, 11, 36, -38, -9, -14, 43, -27, 1, -24, -6, 47, 41, -12, 7, 3, -17, 34, -31, -23, 10, -57, -31, 14, 6, -15, -2, -26, -19, 6, -28, 29, -29, -56, -3, 17, -31, -39, -4, 33, 42, 17, -5, -28, 25, 2, -1, 5, -55, -10, -26, 34, -25, 2, -10, -10, -6, -38, -8, -43, -16, -38, -58, -42, -10, 9, -24, -23, -28, -54, 29, -38, -24, -24, 6, 18, -53, -16, -20, -2, 21, 17, -42, -10, 3, 25, 0, 14, -46, 23, -5, -16, 22, -33, -21, -49, 29, -53, 4, -19, -25, 13, -33, -25, -12, 13, 35, -12, -52, 16, -22, 25, 11, 4, -4, -31, -48, 29, 37, -33, -35, 50, 28, 7, -38, -7, 27, 23, 20, -7, 3, -6, 10, -17, 0, -52, -22, -13, 21, -24, -13, -21, -17, -21, -16, 44, 17, 5, 2, -24, 25, 29, -38, -44, -47, 19, 3, 55, 3, -57, -59, 53, 52, 31, -34, 29, 4, -32, -50, -22, 17, 46, -26, -55, 2, 51, 20, -27, 8, 32, -39, -8, 20, 3, 39, 31, -12, 7, -12, -53, -25, 3, -39, -56, -32, 6, 44, -35, 39, -36, 3, -36, 13, -36, -22, -37, -37, 15, -35, -3, -39, -16, -51, 10, 7, -53, -9, 22, -26, -52, 7, -18, -10, -5, -20, -13, -31, -57, -44, 11, 8, -28, 9, 30, -16, -27, -30, 10, 30, -27, -9, -31, 10, 0, -47, 23, -36, -14, -2, 50, -4, 34, -30, -4, 12, 1, -41, 30, -24, 57, 16, -28, -32, -52, 8, -34, 1, -10, -23, -12, 15, 21, -47, 18, -31, 17, -23, -11, -6, -27, -49, -3, 53, -33, 50, 8, 2, -13, 1, 32, -39, -13, 2, -19, 18, -14, -1, -39, 41, -33, 3, 10, -3, -11, 51, -7, 0, -7, 2, -2, -62, -4, -30, 1, -41, -41, -51, -4, 28, 15, 14, 46, 20, 17, 10, -52, -8, 21, 15, 55, 39, -15, 25, -3, 40, 21, -12, 55, 44, -52, -21, 2, -20, -35, 13, 3, -49, 37, -20, -5, -12, -12, 51, -50, 47, -47, -38, 32, -14, 30, 50, -25, -1, 4, 18, 11, -30, 27, 4, 4, 4, 27, 20, -16, -13, -11, 7, -1, -3, -34, 14, 21, -15, 1, 1, 8, 8, 5, -4, -43, -42, 11, 34, -29, -6, -47, 18, -5, 17, 13, 24, -58, -35, 3, 5, -32, -22, -42, 52, -39, 23, 4, 7, -25, -28, 31, 2, 11, 31, -39, -31, 35, 17, -8, -22, 15, -4, 40, -57, -19, 18, 45, 26, -20, 12, 23, -44, -19, -9, 9, 21, 41, 11, 37, -29, 3, -57, 45, 6, 43, 30, -27, -41, 17, -21, 54, 16, -33, 53, 11, -47, -24, 32, 20, -5, -48, 34, 5, -38, -5, 34, 28, -5, 23, -6, -16, 41, -13, -3, -40, -1, 6, 25, 22, -51, 5, 18, 20, 35, -8, -6, 10, -15, 53, -9, -9, 28, 12, -31, -32, 0, 29, -31, 35, -29, 15, 16, 23, -50, 45, 6, -27, -7, -46, -46, 9, 16, 2, 3, -8, -17, -11, -12, 4, 8, 30, 13, 38, -18, -46, -7, -18, -50, -47, -21, -24, -42, -9, 18, 18, 0, -48, -24, 21, -44, 26, -26, -21, -15, 17, -40, 24, 39, -56, -25, -60, -8, -23, 26, -20, 16, -32, 4, 20, -13, 40, 17, -29, 42, -16, 19, -7, 36, 24, 12, 1, -35, -1, 9, 6, 28, 36, 11, -7, -1, 1, -14, -8, -16, 1, 4, -18, 11, -13, -45, -51, 17, -24, -21, -34, 13, -30, -33, 7, -31, -5, 23, 2, -16, -40, 4, 17, 34, -3, 14, 40, -4, 13, -6, -6, 17, 14, -6, 48, 17, 10, 2, -45, -8, 33, 14, 26, -10, -14, 7, -39, 0, -20, 14, -31, 13, -23, -3, -30, -3, -13, 11, -40, 35, 40, -27, -16, -4, -3, 0, -23, 42, 11, -12, 4, -43, -42, 0, 11, -13, 30, 7, -38, 51, 8, -18, 56, 5, -62, -15, -51, 21, 37, 38, 52, 47, -1, 46, -60, 45, -22, 29, 13, 2, -46, 20, -44, -8, -4, 9, -14, -46, 17, 50, -10, -60, 23, -53, 19, -37, 41, -38, -37, 48, -13, -49, -45, -13, -2, 16, 5, -1, 29, -44, -11, 40, 28, -53, -19, 0, -3, 8, 23, -7, 25, 9, -31, 39, 17, -8, -31, 13, -25, 35, 28, 12, 0, -19, 37, 23, -44, -40, -12, 34, 25, -38, -24, 35, 1, 49, -18, 6, 39, 14, 12, -17, -38, -23, 15, 6, 43, 15, -47, 0, -43, -30, 21, -22, -11, 6, -11, -25, 29, 20, -17, -35, 11, -42, 23, -2, 15, 33, -53, -40, 35, 13, -14, -23, 28, -18, 24, -33, -18, 37, 35, -15, 12, 4, 18, -16, -33, -41, -15, 22, -19, -7, -53, 8, 56, -7, -5, 6, -24, -24, 14, 33, -1, 20, -16, -20, 58, 54, 29, 4, -13, -9, -4, 15, -12, -11, -16, 56, 5, 16, -31, -60, 22, 4, 33, -20, -2, -54, -38, -10, 23, 18, -30, 41, 47, 39, -2, 14, -14, 12, 17, 11, 28, 51, -25, -17, -25, -26, -33, 13, 33, 47, 39, 51, -29, -19, -22, 15, -22, 3, 49, 30, 13, -55, -25, -18, -23, 45, 38, -44, 8, 34, 36, -21, -18, -15, -41, 6, 46, -45, -32, 19, -32, 5, 28, 14, -45, 45, -10, -4, 27, -30, -50, 35, 24, -37, -55, -45, -30, 6, 34, -2, 49, -8, 11, -14, 48, 25, -35, -45, -18, 4, 5, 31, 19, 27, -2, 12, 25, 20, 2, -21, 11, 3, -6, -5, -36, 40, 28, -21, 31, 15, 28, 24, 6, -10, -4, 44, 33, 45, 43, 12, -13, 20, 5, -6, 5, -1, -5, 51, 16, 35, 8, 43, 47, 19, 15, 0, -9, -16, -4, 20, -7, 46, -12, 43, 19, -23, -6, 18, 6, -42, -27, -16, -30, -30, 11, -14, -17, 5, -25, -3, 38, -10, 7, 19, -26, -33, 45, 1, 4, 20, 37, 5, 2, 26, -9, -6, 38, -56, 3, 1, 26, 18, -13, -22, 4, 5, -20, 20, -15, 18, 18, 8, 19, -45, -15, 14, -12, 22, 38, 4, 11, -51, 29, 33, -20, -21, 18, 28, 29, 25, 22, -49, -33, 6, -12, 35, 39, -53, -24, 12, 32, -21, 54, 22, 16, 10, -38, 3, 43, -1, 26, 12, -33, -40, 32, 8, -45, -22, -12, 3, -10, -41, -40, -34, -36, -19, -27, -21, 43, 30, -13, -1, -48, -37, -25, 24, -23, -18, -34, -36, -9, -33, 21, -28, -44, -30, -20, 35, -1, 29, 4, -30, 1, 10, -10, -19, -19, -46, -1, 8, -39, -4, -9, 21, 40, 47, 12, -16, 44, -40, -15, 26, -24, -33, 0, -10, -4, 48, 7, -9, 8, -25, -22, 8, -30, -20, 12, -12, -16, 33, -13, -17, 4, -25, 29, -36, 36, -12, -32, -37, 8, -11, 36, -27, -38, -47, 2, 37, 7, 21, 36, 8, -53, -43, -20, 34, -4, -28, 17, -51, -7, 46, 37, 41, 43, 31, 40, -29, 16, -32, -43, -32, 5, -5, -12, 36, -33, 14, 28, -32, 16, 26, 28, 8, 29, -43, 21, 8, 36, -26, -34, 31, 50, -22, -18, 8, -20, 43, -13, -51, -16, 22, -41, 36, 40, -29, 9, -14, -14, -9, 10, 6, -23, -41, 7, -30, 8, -10, 21, 28, 10, 46, 12, 26, -6, -24, -25, 19, -12, -37, 20, -8, -22, -58, -5, -9, 18, 33, -6, 40, 31, -20, -1, 15, 50, 32, 30, 9, 0, 13, 21, -38, -21, -7, -30, 38, -7, -26, 27, 47, -6, -8, 46, -22, -10, -11, -17, -52, 7, -35, 21, -5, 39, 26, -23, -49, -50, -42, 21, -35, 17, 6, 14, 7, -11, 23, -15, 11, -42, -30, -12, 6, 13, -1, -2, 26, 10, -52, -27, 18, 27, -16, -18, -6, -26, 9, 30, -12, -6, 8, -45, -3, 43, 30, 13, -41, 22, 13, -1, 41, 49, 2, -9, 23, 42, -44, -43, -17, -29, -31, 49, 28, -29, 7, 14, -24, -31, -24, -50, 4, -24, 18, 4, 4, -15, -21, -11, -39, -31, -51, -6, 2, 2, 1, -48, -62, 0, -33, 1, 25, 37, 47, 25, 9, -19, -22, -5, -55, 19, -36, 3, 19, -26, -3, 7, -41, 9, 34, -44, 13, 5, -17, -7, -58, -46, -43, -23, 22, -17, -10, 40, -39, -47, 22, 1, -25, 2, -33, -21, -11, -10, 8, 0, -31, -29, -13, -62, 9, -36, -43, -33, 0, -22, 35, 10, -12, -1, -24, 23, 9, -14, 11, -42, 26, -21, -36, 3, 9, -55, 17, -55, -38, -44, 1, -40, -5, -2, -28, -56, 21, -10, 11, -55, -43, -53, -47, 15, -41, -57, 15, -46, -15, 42, 10, -56, 21, 16, -31, 1, -24, 32, 0, 36, -7, 9, -7, -35, -39, 4, -33, -10, -4, -7, -27, -25, -35, -42, -30, 34, -35, -34, -33, 11, 4, 16, 7, -29, -18, 31, 7, 13, 19, -25, 7, -10, 16, -29, -62, -13, 23, 24, 21, 21, 18, -11, -4, -42, -16, -39, -28, -7, -11, 7, -10, -51, 25, -66, 20, 35, -2, -30, -20, -17, 6, 39, -13, 37, 46, 18, 2, 23, 26, -10, -36, -18, -25, -28, 5, -46, 2, 33, -36, 0, 15, 11, 14, 28, 8, 5, 14, -63, -24, 8, -16, -55, -54, 27, 10, -12, -7, 20, -11, -49, 18, 24, 31, -46, -9, 18, -49, -14, 43, -12, -32, -31, -9, -11, -43, -51, -2, -13, 18, 43, 21, -8, -33, -41, 25, -46, -12, -12, -19, -43, -12, 0, -19, -16, 38, 7, 19, 7, 46, 20, -15, -44, 37, -30, -9, -46, 20, 20, -41, 7, 26, -50, -19, 25, -32, -6, 2, -13, -47, -3, -49, -24, 25, 10, -15, -22, -36, 56, -58, 18, 54, 31, 15, 43, -54, -5, 17, -14, -2, 5, -27, -3, -1, 10, -55, -23, 32, 6, -28, 5, 35, -25, -10, -7, -14, -34, -43, 9, 17, -24, -22, 18, 36, -42, 26, -36, 20, -17, 17, 18, -29, -1, -11, 7, -42, 1, 13, 17, -36, -23, -38, 15, -21, -36, -15, -31, -24, 28, -61, 39, 21, 18, -20, -5, -50, 1, 22, -4, 5, -12, -15, 5, 5, 24, -8, 23, -8, -18, 28, -15, -3, -41, 44, 3, -5, -17, -29, 37, 25, -36, 47, 21, -32, -4, -29, -4, -62, -32, -34, -1, -19, -16, 35, -18, -58, -14, 25, -50, -1, 30, -31, 40, -5, -39, -19, 24, 42, 15, 11, -39, -42, 2, -10, 34, -32, 26, -11, -2, 6, -21, -26, -27, 37, -27, -15, -43, 14, -32, -31, 27, -5, -52, 42, 19, -37, 18, -29, -6, 8, 14, -30, -10, -40, -20, -6, -27, 12, 38, 20, -29, -5, -13, 22, -45, -19, -13, -34, -30, 7, 31, -13, -29, 46, 23, 33, -7, -42, 5, -26, 52, 27, 11, -24, -3, -18, -30, -17, 17, 39, -23, 36, -13, 45, 24, 5, -33, -28, -31, -17, -12, 41, 6, 41, 10, -15, -18, 30, -17, -31, -26, -33, 33, -37, -25, 7, 26, -40, 45, 6, -18, 14, 7, 47, 20, 48, -10, -28, -41, -18, 33, -28, -33, -7, 52, -11, -20, 2, -9, -31, -25, 48, -25, 24, 5, -12, -8, -22, -18, -28, -37, -10, 27, 50, -22, 34, 28, 47, -3, 11, 47, 32, 38, 18, 4, 38, 17, 41, -19, -36, 43, 24, -21, -23, 5, -21, 29, -15, 47, 14}

#define TENSOR_DENSE_KERNEL_0_DEC_BITS {8}

#define TENSOR_DENSE_BIAS_0 {67, -33, -11, -30, -20, 0, -5, 71, -50, 51, 86, 16, -107}

#define TENSOR_DENSE_BIAS_0_DEC_BITS {11}

#define DENSE_BIAS_LSHIFT {0}

#define DENSE_OUTPUT_RSHIFT {8}


/* output q format for each layer */
#define INPUT_1_OUTPUT_DEC 5
#define INPUT_1_OUTPUT_OFFSET 0
#define CONV2D_OUTPUT_DEC 5
#define CONV2D_OUTPUT_OFFSET 0
#define LEAKY_RE_LU_OUTPUT_DEC 5
#define LEAKY_RE_LU_OUTPUT_OFFSET 0
#define CONV2D_1_OUTPUT_DEC 3
#define CONV2D_1_OUTPUT_OFFSET 0
#define LEAKY_RE_LU_1_OUTPUT_DEC 3
#define LEAKY_RE_LU_1_OUTPUT_OFFSET 0
#define AVERAGE_POOLING2D_OUTPUT_DEC 3
#define AVERAGE_POOLING2D_OUTPUT_OFFSET 0
#define FLATTEN_OUTPUT_DEC 3
#define FLATTEN_OUTPUT_OFFSET 0
#define DENSE_OUTPUT_DEC 3
#define DENSE_OUTPUT_OFFSET 0
#define SOFTMAX_OUTPUT_DEC 7
#define SOFTMAX_OUTPUT_OFFSET 0

/* bias shift and output shift for none-weighted layer */

/* tensors and configurations for each layer */
static int8_t nnom_input_data[450] = {0};

const nnom_shape_data_t tensor_input_1_dim[] = {150, 3, 1};
const nnom_qformat_param_t tensor_input_1_dec[] = {5};
const nnom_qformat_param_t tensor_input_1_offset[] = {0};
const nnom_tensor_t tensor_input_1 = {
    .p_data = (void*)nnom_input_data,
    .dim = (nnom_shape_data_t*)tensor_input_1_dim,
    .q_dec = (nnom_qformat_param_t*)tensor_input_1_dec,
    .q_offset = (nnom_qformat_param_t*)tensor_input_1_offset,
    .qtype = NNOM_QTYPE_PER_TENSOR,
    .num_dim = 3,
    .bitwidth = 8
};

const nnom_io_config_t input_1_config = {
    .super = {.name = "input_1"},
    .tensor = (nnom_tensor_t*)&tensor_input_1
};
const int8_t tensor_conv2d_kernel_0_data[] = TENSOR_CONV2D_KERNEL_0;

const nnom_shape_data_t tensor_conv2d_kernel_0_dim[] = {3, 3, 1, 30};
const nnom_qformat_param_t tensor_conv2d_kernel_0_dec[] = TENSOR_CONV2D_KERNEL_0_DEC_BITS;
const nnom_qformat_param_t tensor_conv2d_kernel_0_offset[] = {0};
const nnom_tensor_t tensor_conv2d_kernel_0 = {
    .p_data = (void*)tensor_conv2d_kernel_0_data,
    .dim = (nnom_shape_data_t*)tensor_conv2d_kernel_0_dim,
    .q_dec = (nnom_qformat_param_t*)tensor_conv2d_kernel_0_dec,
    .q_offset = (nnom_qformat_param_t*)tensor_conv2d_kernel_0_offset,
    .qtype = NNOM_QTYPE_PER_TENSOR,
    .num_dim = 4,
    .bitwidth = 8
};
const int8_t tensor_conv2d_bias_0_data[] = TENSOR_CONV2D_BIAS_0;

const nnom_shape_data_t tensor_conv2d_bias_0_dim[] = {30};
const nnom_qformat_param_t tensor_conv2d_bias_0_dec[] = TENSOR_CONV2D_BIAS_0_DEC_BITS;
const nnom_qformat_param_t tensor_conv2d_bias_0_offset[] = {0};
const nnom_tensor_t tensor_conv2d_bias_0 = {
    .p_data = (void*)tensor_conv2d_bias_0_data,
    .dim = (nnom_shape_data_t*)tensor_conv2d_bias_0_dim,
    .q_dec = (nnom_qformat_param_t*)tensor_conv2d_bias_0_dec,
    .q_offset = (nnom_qformat_param_t*)tensor_conv2d_bias_0_offset,
    .qtype = NNOM_QTYPE_PER_TENSOR,
    .num_dim = 1,
    .bitwidth = 8
};

const nnom_qformat_param_t conv2d_output_shift[] = CONV2D_OUTPUT_RSHIFT;
const nnom_qformat_param_t conv2d_bias_shift[] = CONV2D_BIAS_LSHIFT;
const nnom_conv2d_config_t conv2d_config = {
    .super = {.name = "conv2d"},
    .qtype = NNOM_QTYPE_PER_TENSOR,
    .weight = (nnom_tensor_t*)&tensor_conv2d_kernel_0,
    .bias = (nnom_tensor_t*)&tensor_conv2d_bias_0,
    .output_shift = (nnom_qformat_param_t *)&conv2d_output_shift, 
    .bias_shift = (nnom_qformat_param_t *)&conv2d_bias_shift, 
    .filter_size = 30,
    .kernel_size = {3, 3},
    .stride_size = {3, 1},
    .padding_size = {0, 0},
    .dilation_size = {1, 1},
    .padding_type = PADDING_SAME
};
const int8_t tensor_conv2d_1_kernel_0_data[] = TENSOR_CONV2D_1_KERNEL_0;

const nnom_shape_data_t tensor_conv2d_1_kernel_0_dim[] = {3, 3, 30, 15};
const nnom_qformat_param_t tensor_conv2d_1_kernel_0_dec[] = TENSOR_CONV2D_1_KERNEL_0_DEC_BITS;
const nnom_qformat_param_t tensor_conv2d_1_kernel_0_offset[] = {0};
const nnom_tensor_t tensor_conv2d_1_kernel_0 = {
    .p_data = (void*)tensor_conv2d_1_kernel_0_data,
    .dim = (nnom_shape_data_t*)tensor_conv2d_1_kernel_0_dim,
    .q_dec = (nnom_qformat_param_t*)tensor_conv2d_1_kernel_0_dec,
    .q_offset = (nnom_qformat_param_t*)tensor_conv2d_1_kernel_0_offset,
    .qtype = NNOM_QTYPE_PER_TENSOR,
    .num_dim = 4,
    .bitwidth = 8
};
const int8_t tensor_conv2d_1_bias_0_data[] = TENSOR_CONV2D_1_BIAS_0;

const nnom_shape_data_t tensor_conv2d_1_bias_0_dim[] = {15};
const nnom_qformat_param_t tensor_conv2d_1_bias_0_dec[] = TENSOR_CONV2D_1_BIAS_0_DEC_BITS;
const nnom_qformat_param_t tensor_conv2d_1_bias_0_offset[] = {0};
const nnom_tensor_t tensor_conv2d_1_bias_0 = {
    .p_data = (void*)tensor_conv2d_1_bias_0_data,
    .dim = (nnom_shape_data_t*)tensor_conv2d_1_bias_0_dim,
    .q_dec = (nnom_qformat_param_t*)tensor_conv2d_1_bias_0_dec,
    .q_offset = (nnom_qformat_param_t*)tensor_conv2d_1_bias_0_offset,
    .qtype = NNOM_QTYPE_PER_TENSOR,
    .num_dim = 1,
    .bitwidth = 8
};

const nnom_qformat_param_t conv2d_1_output_shift[] = CONV2D_1_OUTPUT_RSHIFT;
const nnom_qformat_param_t conv2d_1_bias_shift[] = CONV2D_1_BIAS_LSHIFT;
const nnom_conv2d_config_t conv2d_1_config = {
    .super = {.name = "conv2d_1"},
    .qtype = NNOM_QTYPE_PER_TENSOR,
    .weight = (nnom_tensor_t*)&tensor_conv2d_1_kernel_0,
    .bias = (nnom_tensor_t*)&tensor_conv2d_1_bias_0,
    .output_shift = (nnom_qformat_param_t *)&conv2d_1_output_shift, 
    .bias_shift = (nnom_qformat_param_t *)&conv2d_1_bias_shift, 
    .filter_size = 15,
    .kernel_size = {3, 3},
    .stride_size = {3, 1},
    .padding_size = {0, 0},
    .dilation_size = {1, 1},
    .padding_type = PADDING_SAME
};

const nnom_pool_config_t average_pooling2d_config = {
    .super = {.name = "average_pooling2d"},
    .padding_type = PADDING_VALID,
    .output_shift = 0,
    .kernel_size = {3, 1},
    .stride_size = {3, 1},
    .num_dim = 2
};

const nnom_flatten_config_t flatten_config = {
    .super = {.name = "flatten"}
};
const int8_t tensor_dense_kernel_0_data[] = TENSOR_DENSE_KERNEL_0;

const nnom_shape_data_t tensor_dense_kernel_0_dim[] = {225, 13};
const nnom_qformat_param_t tensor_dense_kernel_0_dec[] = TENSOR_DENSE_KERNEL_0_DEC_BITS;
const nnom_qformat_param_t tensor_dense_kernel_0_offset[] = {0};
const nnom_tensor_t tensor_dense_kernel_0 = {
    .p_data = (void*)tensor_dense_kernel_0_data,
    .dim = (nnom_shape_data_t*)tensor_dense_kernel_0_dim,
    .q_dec = (nnom_qformat_param_t*)tensor_dense_kernel_0_dec,
    .q_offset = (nnom_qformat_param_t*)tensor_dense_kernel_0_offset,
    .qtype = NNOM_QTYPE_PER_TENSOR,
    .num_dim = 2,
    .bitwidth = 8
};
const int8_t tensor_dense_bias_0_data[] = TENSOR_DENSE_BIAS_0;

const nnom_shape_data_t tensor_dense_bias_0_dim[] = {13};
const nnom_qformat_param_t tensor_dense_bias_0_dec[] = TENSOR_DENSE_BIAS_0_DEC_BITS;
const nnom_qformat_param_t tensor_dense_bias_0_offset[] = {0};
const nnom_tensor_t tensor_dense_bias_0 = {
    .p_data = (void*)tensor_dense_bias_0_data,
    .dim = (nnom_shape_data_t*)tensor_dense_bias_0_dim,
    .q_dec = (nnom_qformat_param_t*)tensor_dense_bias_0_dec,
    .q_offset = (nnom_qformat_param_t*)tensor_dense_bias_0_offset,
    .qtype = NNOM_QTYPE_PER_TENSOR,
    .num_dim = 1,
    .bitwidth = 8
};

const nnom_qformat_param_t dense_output_shift[] = DENSE_OUTPUT_RSHIFT;
const nnom_qformat_param_t dense_bias_shift[] = DENSE_BIAS_LSHIFT;
const nnom_dense_config_t dense_config = {
    .super = {.name = "dense"},
    .qtype = NNOM_QTYPE_PER_TENSOR,
    .weight = (nnom_tensor_t*)&tensor_dense_kernel_0,
    .bias = (nnom_tensor_t*)&tensor_dense_bias_0,
    .output_shift = (nnom_qformat_param_t *)&dense_output_shift,
    .bias_shift = (nnom_qformat_param_t *)&dense_bias_shift
};

const nnom_softmax_config_t softmax_config = {
    .super = {.name = "softmax"}
};
static int8_t nnom_output_data[13] = {0};

const nnom_shape_data_t tensor_output0_dim[] = {13};
const nnom_qformat_param_t tensor_output0_dec[] = {SOFTMAX_OUTPUT_DEC};
const nnom_qformat_param_t tensor_output0_offset[] = {0};
const nnom_tensor_t tensor_output0 = {
    .p_data = (void*)nnom_output_data,
    .dim = (nnom_shape_data_t*)tensor_output0_dim,
    .q_dec = (nnom_qformat_param_t*)tensor_output0_dec,
    .q_offset = (nnom_qformat_param_t*)tensor_output0_offset,
    .qtype = NNOM_QTYPE_PER_TENSOR,
    .num_dim = 1,
    .bitwidth = 8
};

const nnom_io_config_t output0_config = {
    .super = {.name = "output0"},
    .tensor = (nnom_tensor_t*)&tensor_output0
};
/* model version */
#define NNOM_MODEL_VERSION (10000*0 + 100*4 + 3)

/* nnom model */
static nnom_model_t* nnom_model_create(void)
{
	static nnom_model_t model;
	nnom_layer_t* layer[10];

	check_model_version(NNOM_MODEL_VERSION);
	new_model(&model);

	layer[0] = input_s(&input_1_config);
	layer[1] = model.hook(conv2d_s(&conv2d_config), layer[0]);
	layer[2] = model.active(act_leaky_relu(0.300000f), layer[1]);
	layer[3] = model.hook(conv2d_s(&conv2d_1_config), layer[2]);
	layer[4] = model.active(act_leaky_relu(0.300000f), layer[3]);
	layer[5] = model.hook(avgpool_s(&average_pooling2d_config), layer[4]);
	layer[6] = model.hook(flatten_s(&flatten_config), layer[5]);
	layer[7] = model.hook(dense_s(&dense_config), layer[6]);
	layer[8] = model.hook(softmax_s(&softmax_config), layer[7]);
	layer[9] = model.hook(output_s(&output0_config), layer[8]);
	model_compile(&model, layer[0], layer[9]);
	return &model;
}
